#ifndef WEIGHTS_H
#define WEIGHTS_H
#include "ap_fixed.h"
typedef ap_fixed<40,10> data_t;

data_t bias_conv4[8]={0.6474334,0.5021539,0.15455641,0.78605837,0.30350417,-0.5095227,0.54400295,0.6221989};
data_t bias_conv5[8]={0.056719672,0.43973938,0.593019,0.1334745,0.14024757,-0.36339596,0.28529936,-0.033020418};
data_t bias_conv6[16]={-0.009208856,0.64465904,0.18871084,0.4179924,-0.23826952,-0.059796713,-0.27951825,0.20594509,0.6270969,-0.2718816,0.33604336,0.25907987,-0.3748888,-0.1167909,-0.27504212,-0.17446807};
data_t bias_conv7[1]={-0.31341645};

data_t filter4[8*8*3*3]={-0.05353427, 0.00273042, 0.03461251, -0.11558491, -0.16561672, -0.17701644, 0.1318332, 0.05598129, -0.09287412, -0.11253025, 0.04703401, -0.06167003, -0.02542767, -0.29898307, 0.23250714, -0.11091627, 0.02589541, -0.04855473, -0.1581634, 0.01058759, -0.00619458, -0.21009843, -0.08114899, 0.10976224, 0.08899342, -0.0571292, 0.01351235, 0.27915877, 0.17958747, -0.00644577, 0.09153629, 0.20249856, -0.03451004, -0.04718816, -0.02593838, 0.14439763, -0.15233144, 0.21358956, -0.39046884, -0.14471975, 0.01116831, 0.18587619, 0.10037319, -0.04321624, -0.10460848, -0.04324847, 0.04228878, 0.01031322, 0.24450539, -0.14892522, 0.2528033, 0.02564466, -0.15091963, -0.09586192, 0.12716937, -0.1164217, 0.03774165, 0.0679022, -0.32809952, 0.12740332, 0.00757734, 0.19138867, -0.0602621, 0.11442138, 0.03617706, -0.07744278, 0.39175305, 0.26469943, 0.04573256, 0.00623977, 0.07370271, -0.0473356, 0.09586508, -0.15647876, 0.0417666, -0.1887387, 0.02081872, 0.11013738, -0.21561666, 0.1312814, 0.11480291, -0.04518899, 0.24582806, -0.00135893, 0.03461677, 0.15786755, -0.13115875, -0.05027754, 0.10416754, 0.14188185, -0.08989637, -0.01390909, 0.13863681, 0.05304958, 0.07699338, -0.3722038, 0.07008355, -0.17071356, 0.01374694, 0.28926137, 0.09160412, -0.0461775, 0.15874086, -0.22433728, 0.15612464, 0.04314532, -0.06281272, -0.2261888, -0.23371184, 0.71487665, -0.34592086, -0.06524573, 0.19553293, -0.6741654, -0.05170781, -0.01164026, 0.14897725, 0.15269017, 0.16228239, 0.10446145, -0.09032519, 0.58692086, 0.00745971, 0.02513978, 0.08319099, 0.10665272, -0.11865605, -0.16301253, -0.03843581, 0.01153917, -0.40534708, 0.12302921, -0.01832834, 0.16433139, -0.04865934, 0.03337184, 0.09323235, 0.08011923, 0.14035128, 0.13028729, 0.1594658, 0.13199703, -0.03058298, 0.01313367, -0.08003471, 0.24574801, 0.03174589, 0.43125284, -0.02843783, 0.07917425, -0.11882281, -0.04355394, -0.03952047, 0.11112806, -0.18428135, -0.09751894, -0.0739763, -0.21186507, 0.17957787, -0.0482433, 0.14175779, -0.0881279, 0.01236782, 0.01547033, 0.03825629, -0.16366905, 0.2452969, -0.03108223, 0.15524822, 0.1005932, -0.00040854, -0.16770212, 0.08793634, 0.02046845, -0.06311576, -0.21244237, -0.00491537, -0.09755995, -0.06505376, 0.02003511, 0.19064867, -0.02749211, 0.2247211, -0.0498107, 0.03282782, 0.35398003, 0.02565317, -0.01031491, 0.17956553, 0.35640058, -0.0800639, -0.11682043, 0.10124989, 0.59518874, -0.04286273, -0.02900106, -0.12733185, -0.12527585, 0.13652593, 0.04186978, 0.0339142, 0.06942142, 0.3336456, -0.1341998, -0.03977976, -0.2248108, 0.1058514, -0.0500595, -0.07839499, -0.11753508, 0.04825826, 0.37687188, -0.08619564, 0.15392454, -0.10985836, 0.02265298, -0.14856388, 0.14404179, 0.16102232, -0.36781114, 0.27037564, 0.11013584, -0.00983908, 0.08282381, 0.10037139, 0.04222262, -0.3134325, -0.03974574, 0.05831756, 0.02050728, 0.00115529, -0.06922884, -0.03071028, -0.0738952, -0.05393166, -0.40429938, 0.04091605, -0.05788187, -0.4460751, -0.10188496, 0.08586364, -0.01628904, 0.03811755, 0.02878892, 0.18398923, 0.03300226, 0.08438508, -0.13809592, 0.15823114, -0.06459807, 0.01728398, -0.09681837, -0.24830347, 0.30763754, 0.00540642, -0.10704413, 0.06475947, 0.3809346, 0.06271037, -0.06942482, 0.01945444, 0.03827592, 0.00536609, -0.10132305, -0.03372107, -0.00189643, 0.08104314, -0.02494743, 0.01034316, -0.06492291, 0.04874279, 0.17694387, -0.02777945, 0.05136408, 0.3207518, 0.01339758, 0.03120551, 0.11256348, 0.02404252, 0.11312077, 0.4371816, -0.29679856, 0.315679, 0.07826591, -0.01564001, 0.03496687, -0.0950017, 0.01485631, 0.23641367, 0.15257215, 0.04974725, -0.37846324, 0.26610407, 0.1190237, -0.04749518, -0.00182072, 0.09526147, 0.16727015, -0.2515807, -0.14067176, 0.10913983, 0.283468, -0.19681403, 0.0113054, -0.07083607, -0.0896759, 0.01737044, -0.36332533, 0.05444657, 0.06351627, -0.02866869, -0.04403675, -0.02506531, 0.09611966, -0.02071184, -0.0126227, 0.11686883, 0.15498103, 0.12032579, -0.0608928, 0.0398836, -0.07345308, 0.03845829, -0.06591355, -0.15810545, 1.0194288, 1.0413306, 0.01541356, 0.00941383, 0.07238317, -0.05002908, 0.07564124, 0.01219627, 0.25125054, -0.28932494, -0.01037828, -0.00121562, 0.10468576, 0.01700269, -0.260842, 0.01712116, -0.08937161, -0.2503098, 0.01746386, 0.05493985, -0.08912291, -0.2761167, 0.10160488, -0.01040096, -0.04390961, 0.10874167, -0.07317334, 0.23125842, -0.08461215, 0.12913856, -0.02805559, 0.1059755, 0.07942125, -0.01760564, 0.124633, -0.09941093, 0.06023943, 0.04459628, -0.04915771, 0.20099698, -0.0464721, 0.01682568, -0.09559492, 0.01085928, 0.09457045, -0.10375741, -0.02556658, -0.04971392, 0.48876882, -0.00745201, -0.11156364, -0.00054057, -0.02209502, -0.05559651, -0.14097758, -0.08598328, 0.0259256, 0.23759294, -0.00838979, 0.0374921, 0.05769567, 0.07710367, -0.07509632, -0.02658467, 0.00095768, 0.05583207, 0.43578327, 0.01057915, 0.00846511, -0.05637594, 0.05817636, -0.01815961, -0.00691916, -0.39045656, 0.01485991, -0.08129042, 0.5346524, 0.02061012, -0.00353583, -0.28847742, 0.1046, -0.08776794, 0.00231095, 0.01832624, 0.05451765, -0.02175369, 0.17053717, 0.02126556, -0.07548892, 2.4883471e-02, 6.5223560e-02, 2.2816622e-04, 1.2072450e-01, -3.6139965e-01, 1.1125546e-02, -4.3352965e-02, -8.7160468e-02, -1.2908487e-02, 0.05350754, 0.1312672, -0.11232688, 0.03443046, 0.3410024, 0.0640354, 0.07353805, 0.00826659, 0.01360546, 0.16287194, -0.10928314, 0.03231665, -0.2752143, 0.02372241, -0.06533438, -0.17132391, -0.14025807, -0.04273453, -0.06962147, 0.14760049, 0.05082432, 0.03596928, -0.44805434, -0.00091764, -0.01598709, 0.06360863, 0.07670642, -0.08003206, -0.00407225, 0.21766433, 0.00087054, 0.5472692, 0.04022307, -0.04623282, 0.01314022, -0.0234705, -0.2542243, -0.2875691, -0.06091002, 0.05908777, 0.23002194, 0.02915354, 0.01227454, 0.00402441, -0.11499906, -2.1691177, 0.69746023, 0.386236, 0.04907588, 0.193971, 0.07069113, -0.13858569, 0.12833652, -0.16643453, 0.3988541, 0.03976711, 0.19428742, -0.10711896, 0.07594509, 0.03258318, 0.21998358, 0.26085916, 0.05256809, -0.04813423, 0.1484903, -0.08809876, 0.14055257, -0.61777645, 0.14214987, -0.04905468, -0.02850463, -0.00517574, -0.13177273, -0.45367113, -0.14359692, 0.33924454, 0.20720112, -0.04795125, 0.15459532, 0.04925698, 0.05479416, -0.05279233, 0.01154036, -0.06120909, -0.3650461, 0.09308258, 0.03154963, 0.09653351, -0.01008863, 0.03213834, -0.12339159, 0.02377816, 0.03983399, -0.21981384, 0.27124715, -0.00491318, -0.01234227, -0.05002018, -0.05246517, -0.11438288, 0.04260919, -0.1578116, 0.09144173, -0.3121479, -0.00627535, 0.02687822, 0.17240517, -0.07924353, 0.06287092, -0.08128955, 0.12499448, -0.41563466, 0.2275128, 0.05151227, 0.00944976, 0.01378581, -0.04769661, 0.5574673, 0.05468595, 0.2591153, 0.48573282, 0.6952692, -0.09833732, 0.01754879, 0.11055247, 0.20650853, 0.04224464, -0.14828819, 0.03983375, 0.6964221, 0.07421114, -0.22371727, -0.13850577, -0.4137101, -0.01395418, -0.06642941, -0.06096205, 0.02974173, 0.28961316, -0.21283656, -0.09334915, 0.00417029, 0.12879744, 0.0127127, 0.44082686, 0.04931875, 0.08146446, 0.09818774, -0.00251722, 0.03114469, -0.15859404, -0.05812319, 0.03730413};
data_t filter5[8*8*3*3]={-0.03699066, -0.04906592, -0.12089501, 0.12556295, 0.2478352, -0.03418554, 0.0099747, 0.14660457, -0.19268094, -0.14602666, 0.20474571, 0.01965329, -0.04394389, -0.2838696, 0.2093721, -0.06767263, 0.3432052, -0.19651501, 0.01330398, -0.01281688, 0.06475645, 0.10903893, 0.02071414, -0.17338641, -0.08703384, -0.09087432, 0.02329365, -0.01931586, -0.26861745, 0.02979043, 0.30055955, 0.31666443, 0.10108208, -0.4565116, 0.05509898, -0.05274168, 0.11711626, 0.01651221, 0.17937753, -0.0755747, 0.09309578, -0.29586968, 0.16663107, 0.16368137, 0.01486823, -0.01486828, 0.17938364, 0.02529768, -0.17112686, -0.02115455, 0.13617046, -0.09567446, 0.03532487, 0.04555516, 0.18700364, -0.09810597, 0.02115632, 0.11398651, -0.1564357, 0.02636726, 0.18600684, -0.37619683, 0.52661157, 0.12207193, -0.02162079, -0.16270238, -0.02678302, 0.35144603, 0.52468824, -0.01652491, -0.23348466, 0.05248214, -0.15008739, -0.00780965, -0.06500687, -0.24212062, 0.07872602, -0.01414887, 0.06058773, 0.33892968, 0.03278025, 0.08553509, 0.02202703, 0.09264307, 0.32587728, -0.00662134, -0.12263872, -0.200146, 0.17240103, 0.10102693, 0.00625311, 0.05487541, 0.06454643, 0.16896321, 0.09538689, -0.00232603, 0.04393725, 0.02143997, -0.25735807, -0.05856482, -0.10926284, -0.05147121, 0.2757946, 0.40710083, 0.07527577, -0.26863602, -0.23551159, -0.13721582, -0.02893536, 0.10863172, -0.0514361, 0.09651672, -0.31797257, 0.05352802, -0.184587, 0.4733903, -0.10681771, -0.1638204, 0.01984313, 0.05001863, -0.11575824, -0.18577865, 0.00306221, 0.04817766, -0.11936245, 0.12467017, -0.04599489, 0.02193001, -0.37265527, 0.14756739, 0.27705777, -0.18155837, 0.30589068, 0.16852957, -0.7090437, -0.1439382, 0.29211876, -0.574073, 0.218549, 0.33696792, 0.30999696, -0.1337931, -0.2757418, 0.11326125, -0.12430868, -0.06352944, -0.22041592, -0.13071537, 0.07456186, 0.3805229, -0.02556712, 0.23520714, 0.21518177, 0.2796939, 0.13693485, -0.25493458, 0.03290834, 0.1613008, 0.0976638, -0.09175442, -0.03907265, 0.11877254, 0.16093302, 0.08955979, -0.03227427, -0.24586722, 0.3387697, -0.14204963, 0.10280465, 0.0926384, -0.16629359, 0.07178847, 0.28179547, 0.01501404, -0.04700425, -0.14151576, 0.18893687, 0.13334918, -0.37832415, -0.28033817, 0.04820775, -0.04253413, -0.2914337, -0.17589939, 0.132297, 0.10000011, -0.00372927, -0.26407823, 0.07196296, -0.04231049, -0.27850834, -0.13217272, 0.17385758, -0.24710476, -0.27643132, 0.0163157, -0.13757294, 0.12960301, 0.14884618, 0.06954304, -0.00390967, -0.1669822, 0.08223128, 0.5765316, 0.31217676, 0.13450173, 0.03190596, 0.00344695, 0.11045813, -0.10977518, -0.02453911, -0.02201797, 0.35965118, 0.01242377, -0.09001778, 0.09434406, -0.17505282, -0.12224018, 0.03480622, 0.03782227, 0.2573444, 0.07721842, 0.00051901, -0.08730489, -0.04262003, 0.2845756, 0.1006225, -0.3448651, -0.16970794, 0.27692994, 0.14776415, 0.09251945, -0.07155954, -0.24762194, 0.11663006, -0.05182066, -0.22769512, 0.04367083, 0.26987123, -0.17995316, 0.00730871, -0.03092066, 0.04544991, 0.07793981, 0.16073942, -0.08334538, -0.2255535, -0.26315415, 0.25774544, 0.17252545, 0.02544065, -0.00694569, 0.06151308, -0.12253792, 0.12172405, 0.02074075, 0.02841064, 0.10132378, -0.04022633, -0.20396401, 0.02283798, -0.08517206, -0.07598859, -0.09264757, 0.13498683, 0.02437076, -0.0987877, 0.09267624, -0.00833789, 0.20184879, 0.04291837, 0.02434792, -0.05448844, 0.12635678, 0.12874685, 0.42950663, 0.14759015, 0.5640856, 0.00974323, -0.1096964, -0.6072871, 0.6125714, 0.27126402, -0.08785416, -0.20172252, -0.13411781, -0.09252606, -0.1463281, 0.32353312, 0.00845394, 0.14279455, -0.22624546, -0.38531175, -0.0260245, -0.12001698, 0.22631396, 0.19130298, -0.16541056, 0.5006266, -0.19436315, 0.31398597, 0.08499704, -0.30301875, -0.04229512, -0.12552929, 0.27887407, 0.07972631, 0.0998022, -0.08813646, -0.18811263, 0.27779797, 0.41593653, -0.03313665, 0.08304421, -0.2867872, -0.06574738, 0.02531596, 0.01730834, -0.0436416, 0.15066493, -0.10701259, 0.3679616, -0.12824486, -0.11685754, -0.1251788, 0.06046256, -0.2370949, -0.07426523, 0.1545474, 0.07901002, -0.0210589, -0.4126163, 0.0427684, 0.17110968, -0.05187513, -0.03289754, 0.0283081, -0.10011005, -0.29885963, 0.11158191, -0.25369173, 0.11256131, 0.00437772, 0.11095048, -0.19655553, -0.03670933, 0.01470036, 0.5603881, -0.00744919, 0.27161205, 0.39899617, -0.02701763, 0.05919703, -0.1812499, -0.04513798, 0.0497719, -0.10988273, -0.1281189, 0.00511588, 0.17880127, 0.00987683, 0.17035559, 0.04988851, 0.11192117, -0.26671678, -0.34543663, 0.04339268, -0.14378117, 0.01377449, -0.08450717, 0.09707792, -0.0009228, 0.06341023, 0.03119319, 0.00184537, -0.03844423, -0.0369784, -0.30202192, 0.09868357, 0.1011534, 0.18389958, -0.05351945, -0.19310746, 0.17222103, 0.07986964, 0.15820034, 0.13789468, -0.04899648, -0.0962605, -0.09737419, -0.14859831, 0.01156241, -0.11395454, 0.22501858, 0.25686073, -0.12687655, 0.01928107, 0.22318445, 0.07818741, 0.08207241, 0.13352548, -0.15753442, 0.16234693, 0.00822287, 0.12802377, -0.28400344, 0.09767665, 0.08059237, -0.00247611, 0.24405524, 0.187033, 0.02845029, -0.03022684, 0.01494689, 0.02300081, 0.21110216, 0.18743128, 0.26034424, -0.30089006, 0.20771436, 0.3631528, 0.24276873, -0.15382893, -0.1173032, 0.13467364, -0.12600543, 0.10831993, 0.3457588, -0.24073905, -0.19187388, 0.03017701, 0.1287928, -0.15630975, 0.1624317, -0.0833851, 0.37696713, 0.18891789, -0.11848938, -0.07037818, -0.01465037, -0.08856889, -0.18765572, -0.2802658, 0.11892598, 0.12827799, 0.15611736, 0.03870235, 0.07332297, 0.00795362, -0.0780468, 0.0635751, -0.16023314, 0.15777978, 0.00027074, -0.1551936, -0.04817101, -0.05476975, 0.14551033, 0.12981641, 0.27855542, 0.02814483, 0.01093804, -0.178187, 0.04602136, 0.01646134, -0.31225032, 0.11352516, -0.02102443, 0.02471192, 0.01261618, 0.0541482, -0.11710392, 0.14766793, 0.20671801, 0.03515048, 0.47407332, -0.24519907, -0.3350066, -0.14808866, 0.19756253, -0.09844938, 0.02845643, 0.07413126, -0.00103332, -0.10265958, 0.10099443, -0.1229183, -0.04857737, 0.21690464, 0.4481406, 0.09351294, -0.10977316, 0.31018195, -0.36148104, 0.53668815, -0.15354158, 0.09337975, 0.07169735, 0.02005202, 0.06410309, 0.43104026, -0.06986782, -0.00781642, -0.04910209, 0.48904628, -0.01288944, -0.16623653, 0.01519612, -0.04500956, -0.08441889, -0.05932119, 0.06089603, -0.07649954, -0.09123786, 0.01332851, 0.09381287, 0.0059186, -0.19123206, -0.2257642, -0.13942422, 0.05852395, 0.10982408, -0.08820665, -0.29737285, 0.01872979, 0.07109236, 0.09893718, -0.19104022, 0.03206085, -0.0445961, -0.02962004, 0.03168942, 0.007739, -0.06135976, -0.12351935, 0.28432328, -0.06070104, 0.07820807, -0.09935085, 0.00244135, 0.03708155, 0.33398306, -0.38766435, 0.2410378, 0.26020473, -0.3741775, 0.02238925, -0.06361509, 0.08416823, -0.53126794, 0.03600787, 0.2506757, 0.10557802, 0.02381583, 0.02400882, -0.01721716, 0.02552342, 0.0725951, 0.25476584, 0.15628618, -0.0255491, 0.51829994, 0.01891987, -0.13381597, -0.10144776, -0.744746, -0.33604702, -0.243991, 0.75765646, -0.42185935, -0.23890162, 0.23310298, 0.18538213, 0.03906789, -0.03757243, 0.16285764};
data_t filter6[16*8*3*3]={0.10665786, 0.17391276, -0.04706912, -0.29621515, -0.12495477, -0.03390224, -0.1325902, 0.05268038, 0.09408271, 0.06888886, 0.10584608, 0.17169191, -0.11198018, -0.28330535, -0.04183875, -0.33130178, -0.08976571, -0.10397488, -0.33599687, 0.3850787, 0.386431, -0.45853156, 0.06809615, 0.22969034, 0.38566896, -0.07874229, -0.06103462, 0.26521683, 0.02778811, 0.00973804, -0.1112006, 0.1278571, 0.18075645, -0.06175599, -0.0417379, -0.08573253, 0.25569892, 0.03945228, -0.14727323, -0.1233425, -0.03854726, -0.1013991, -0.13794899, 0.03622996, 0.02361075, -0.23160282, -0.06075829, -0.04722542, -0.12987177, -0.0453231, 0.23510565, -0.10568293, 0.1492059, 0.10542211, 0.27032864, 0.09022243, -0.05039237, 0.30930558, 0.01676412, -0.21011795, -0.16618119, -0.22877137, 0.10493868, -0.09954478, -0.02215685, 0.0649984, 0.11785207, 0.3306677, -0.12642694, 0.28677836, 0.0953721, -0.15152246, 0.10929125, 0.11850856, -0.03400891, -0.20188914, -0.02819396, -0.17921492, 0.11580471, -0.06937011, 0.20510644, -0.02404612, 0.76634103, 0.13524559, -0.02150999, -0.09624384, -0.3225982, -0.35084426, 0.13504598, -0.10092612, 0.18910876, 0.19442931, -0.07611578, -0.24012062, 0.3262514, -0.33265415, -0.30313745, -0.92541873, -0.50017494, 0.35704562, 0.05534736, -0.11074339, 0.25754282, -0.00882618, 0.12062446, 0.06121183, -0.12153219, -0.08860952, 0.3182614, 0.05114364, 0.156583, -0.04614425, -0.28013876, 0.01128619, 0.05296021, -0.05890092, 0.2856614, -0.06440198, 0.08065815, -0.10104557, 0.06874142, -0.01016947, 0.07102834, -0.03304878, 0.09651639, 0.00291564, 0.19238685, 0.08036238, -0.04337071, 0.0484124, 0.00478155, -0.24053791, -0.33343792, -0.28787202, -0.12345717, 0.01421211, 0.02429315, 0.11837693, -0.03169079, -0.01759254, 0.04923539, -0.07207678, -0.2534641, 0.03142319, -0.04543419, 0.14142534, 0.03439441, -0.10815247, -0.05219105, -0.02994727, -0.08458254, 0.05888963, -0.14575404, 0.30489987, -0.6232179, -0.25343695, 0.28698045, 0.27080527, 0.42312524, 0.24664076, -0.08015599, -0.09263696, 0.52382445, -0.536361, -0.01553982, 0.0757153, 0.12335955, 0.39978024, 0.0097708, -0.20149978, -0.01023282, 0.19620173, 0.1743695, -0.02403872, 0.12671904, 0.01553403, 0.07237566, -0.15717444, 0.01203989, -0.25252485, -0.01126922, -0.0356454, -0.02203578, -0.19239457, 0.12264659, -0.08352925, -0.11496872, 0.15506962, -0.24832857, -0.20597786, 0.00789926, 0.09093513, -0.08200302, 0.20012249, 0.12608589, 0.0745971, 0.05391195, 0.02344099, 9.3763337e-02, 2.5714633e-01, -1.1108972e-01, 2.6745260e-01, 2.2016136e-01, 3.9759640e-02, 2.4954531e-01, 6.5075103e-05, 9.7309276e-02, -0.04200055, 0.06140041, 0.14558004, 0.09408869, 0.25753668, -0.01602403, 0.12365412, 0.62764204, 0.17571172, 0.05291818, 0.14259018, -0.01289264, 0.25769374, 0.20477752, -0.10555098, -0.00455422, 0.04363779, 0.01935034, 0.0769446, 0.07363315, -0.50663483, 0.3849319, 0.08151551, -0.6085655, 0.39667416, 0.19223027, -0.37235138, 1.1510897, -0.60871476, -0.24010025, -1.5232493, 0.6590183, -0.45708272, 0.26981542, 0.19826491, -0.32901484, -0.15225224, -0.10775807, -0.20502245, 0.0284858, 0.00407309, -0.5070181, 0.13169089, -0.06679434, -0.03144229, 0.2689794, -0.11184072, 0.03507118, 0.12829025, -0.2630937, -0.01007, -0.18357727, -0.26101097, 0.1680324, -0.13731511, -0.02774889, 0.14852111, -0.07742702, -0.05231722, 0.11398622, 0.04871043, 0.18731634, 0.02099962, -0.09276021, 0.2177063, -0.11016216, 0.08637239, 0.34811997, -0.25664082, 0.08506823, 0.31703523, 0.07810142, 0.08474816, -0.15716675, 0.2037724, -0.07497393, 0.0608324, 0.03393853, 0.17362493, 0.07028623, 0.25961867, -0.20730364, -0.15161355, -0.13575998, -0.01535252, 0.13606913, -0.00582799, 0.13737814, 0.18317966, -0.10800944, 0.06288669, -0.340408, -0.17969775, 0.04426604, -0.06657501, -0.04931092, 0.19515665, 0.06571048, -0.01687133, 0.21894632, 0.54825515, 0.18181501, -0.39636582, 0.04496403, 0.17800063, 0.4240608, -0.0122087, 0.1171025, -0.04923985, 0.0509218, 0.142718, -0.0049689, -0.07674899, 0.0353469, -0.12621732, -0.1215781, -0.1734264, -0.33296388, -0.09007487, -0.10163801, -0.24444193, 0.29858342, 0.21280085, -0.11142199, 0.12718502, -0.09392559, -0.06292727, 0.01861251, -0.05097598, 0.00070599, 0.18578725, -0.07429001, 0.01589713, -0.12818827, -0.03874242, 0.22252002, 0.01455938, -0.03500507, -0.03367988, -0.19391666, -0.07878882, -0.08796275, 0.00526862, 0.18021215, -0.19708027, 0.11871557, 0.15383962, 0.22259861, 0.27292892, 0.06314816, 0.09335525, 0.06166412, -0.0806795, -0.16947316, 0.01818717, 0.06633256, 0.01492272, -0.0185128, -0.0886659, -0.17031553, 0.07035483, -0.00362403, -0.06204768, 0.04530296, 0.11347548, 0.25745088, 0.0863883, 0.26889545, 0.33624923, 0.1373491, -0.07868617, -0.38728774, 0.18654378, 0.07427885, 0.03927512, -0.08630809, 0.07220652, 0.09508266, 0.23529899, 0.02303255, -0.17239964, 0.01472201, -0.02249602, 0.11840202, 0.33998972, 0.00684276, -0.41743797, 0.40312734, -0.01845533, -0.02151985, -0.01766306, 0.09699424, -0.03948738, 0.08822083, -0.02476675, -0.05014688, 0.09760122, -0.0639364, -0.11188084, 0.10492735, -0.21152727, -0.13866271, 0.10935438, -0.02132501, -0.05697646, 0.13662612, 0.17584525, -0.06827971, -0.16737011, 0.05167906, -0.0257292, -0.08684824, -0.16611671, 0.18963502, 0.19118235, -0.1290944, 0.04746637, 0.07318087, 0.01913483, -0.09942064, -0.02330056, 0.1416492, 0.19731282, 0.07410197, -0.08279629, -0.14923128, 0.01926865, -0.03325759, -0.13070169, -0.07105921, 0.07676159, 0.02441225, 0.10805669, 0.10855193, 0.02296029, 0.08988898, 0.08949149, 0.40038165, 0.17640173, -0.02965261, 0.1417345, 0.24838114, -0.08770826, -0.03557125, 0.5850226, 0.1802399, 0.15623288, 0.31487873, -0.03963965, -0.01592058, 0.12165077, -0.34950486, 0.2271001, 0.13117845, 0.17546289, 0.0959433, 0.15477759, -0.0851938, 0.12608509, 0.06321287, -0.23100401, 0.08156568, 0.02518207, 0.03696999, 0.2395908, -0.08109484, -0.10097755, 0.03425343, -0.14310652, -0.02065186, 0.15105474, 0.13733606, -0.09097607, -0.02118292, 0.15196091, 0.2826544, -0.04135131, 0.15682493, 0.18479535, 0.11906432, 0.05023188, -0.08678398, 0.09128749, -0.09300082, -0.27529666, -0.04725984, 0.15522397, 0.21522668, 0.1027272, 0.09819062, 0.0865147, 0.2035763, -0.00609614, 0.28959277, 0.05009392, -0.19727802, -0.34602845, 0.10519105, 0.1186308, -0.12790701, 0.08594905, 0.21146537, 0.04873567, -0.3311769, -0.04923781, 0.02999508, 0.10941758, 0.13038962, 0.1746, 0.38342556, 0.06359532, -0.1440426, 0.19604976, 0.00952191, 0.0252432, -1.313313, -1.9307878, -0.1960005, -0.6198622, 0.2705233, -0.24473885, 0.4663279, -0.40073356, -0.23210682, -0.06069843, -0.31801492, -0.0823428, 0.36028266, 0.17238434, -0.10288221, -0.08902259, 0.07356939, -0.05914754, 0.15677574, 0.1336204, 0.08580991, 0.08220167, -0.19070858, -0.14578548, 0.03640294, -0.10152571, 0.05553837, -0.05738463, 0.06893755, 0.06373985, -0.1752995, -0.00136039, 0.02732659, -0.0564652, 0.09763002, -0.03977086, -0.1301093, -0.3569451, -0.12122227, 0.21711804, 0.11984742, 0.00987569, 0.33096474, 0.06329162, -0.1111535, 0.11773953, -0.04333821, -0.24781574, -0.18247873, -0.25661278, -0.47752738, -0.04140627, 0.48157868, 0.128351, 0.14296356, 0.04316689, 0.2528613, -0.25999275, -0.297501, 0.05383091, 0.11318415, -0.15846899, 0.07371972, 0.34834, 0.00416966, 0.24310103, -0.21753834, -0.13522716, -0.11457179, -0.06037378, -0.17475174, -0.2683464, -0.65473783, -0.05224286, 0.29637662, -0.04131428, 0.06214733, 0.25540343, -0.58759594, 0.17568265, 0.14574872, 0.08820673, 0.14328822, 0.04663789, -0.34258863, 0.10775499, 0.10797, 0.11156283, -0.17151006, -0.02830902, 0.04153133, 0.07799955, -0.12186227, -0.03070077, -0.10898703, -0.1666593, 0.19253634, -0.01279268, 0.04185841, 0.07400653, -0.10773271, -0.10561299, 0.04828834, -0.15595964, 0.1852221, -0.01792564, -0.06228008, 0.19521335, -0.21369535, 0.12674451, -0.0039963, 0.0630523, 0.24674912, 0.1299675, -0.38204575, 0.07479841, -0.11588387, -0.03166787, -0.30811414, 0.10154269, -0.15900381, -0.22485672, -0.11033649, -0.14064926, -0.19925489, -0.01738406, 0.07774695, -0.0158109, -0.11716372, -0.03892521, -0.00371838, -0.17717725, -0.2031759, 0.08829252, 0.09634567, -0.04862444, 0.0830628, -0.23239042, 0.17390119, 0.18805413, 0.00668716, 0.12681729, 0.02165464, 0.07621318, -0.27904648, 0.06041091, 0.23574935, 0.57697856, 0.28467727, 0.11547723, 0.20571092, -0.19790491, 0.26835135, -0.24157941, -0.21519616, -0.10703729, 0.4438957, -0.26511857, -0.07431173, 0.0445653, 0.00999968, 0.04181982, 0.06758355, -0.30812442, -0.17220859, -0.021325, -0.00179694, 0.21111307, 0.07376184, 0.03409475, -0.18819956, -0.19686934, 0.09639277, 0.05122356, -0.2148398, 0.24958065, -0.02006276, 0.04078751, -0.01293569, 0.06280702, 0.11163825, 0.21844299, 0.06373075, 0.14210825, -0.08019865, -0.2528714, 0.23503254, -0.1321664, 0.08557811, 0.0383603, 0.0935368, -0.07005191, 0.09652091, 0.09272806, 0.12603074, 0.08679534, 0.14890015, -0.28512642, 0.129891, 0.04225864, 0.01820456, -0.4232248, -0.31207222, 0.01104709, -0.26283282, 0.05500204, 0.14600995, 0.1459833, 0.3963508, 0.20975217, -0.08065464, -0.00482839, -0.17507657, -0.35794735, -0.00089948, -0.31567046, 0.4442072, 0.03202482, 0.04915427, 1.3036978, -0.09214172, -0.06751475, -0.90881175, -0.468073, -0.11552221, -0.0631907, 0.22443192, 0.16381755, 0.09913496, 0.41258413, 0.1693892, 0.08229419, 0.226523, 0.06269583, 0.25316027, -0.12811099, -0.11424811, -0.24205074, -0.27211228, -0.03641074, 0.06120905, 0.00690408, 0.14500141, -0.12252459, -0.05006906, -0.12398138, -0.05118423, 0.03566059, 0.04216608, 0.01897015, 0.05463678, 0.20889945, 0.11300619, 0.1997462, 0.0356354, 0.53760016, 0.07473693, 0.13306496, 0.03413758, -0.29782566, -0.06564049, 0.01940358, 0.11377556, 0.06802717, 0.10828592, 0.305704, 0.17765626, 0.16775724, 0.32273826, -0.2789373, -0.03516578, 0.00637882, 0.28771317, -0.03620229, 0.12912993, -0.00259059, -0.0545533, -0.16972144, 0.04754491, -0.16897099, 0.34254158, -0.11060131, -0.09094863, 0.29727927, 0.49821192, -0.08913684, 0.05238196, 0.34548905, 0.5927886, -0.6237178, -0.23882756, 0.12808855, -0.15863323, 0.19272019, -0.14246058, 0.06240252, 0.5424167, 0.00699538, -0.11234713, 0.00202467, -0.09029658, 0.13510296, -0.21392159, 0.02953804, 0.11834423, 0.20579095, -0.1633453, 0.26524538, 0.0240933, 0.09877193, 0.10291635, -0.0624442, -0.07413107, 0.12343519, -0.3845017, 0.12523022, -0.00967465, -0.02543891, 0.0323986, -0.19749531, -0.12159871, -0.02231099, -0.2294703, 0.27450663, -0.03819776, -0.12642342, 0.25209838, -0.14092807, 0.05689329, -0.05166149, -0.15414649, 0.18676296, 0.13277903, 0.01846417, -0.12237098, -0.17752331, -0.10841794, -0.08474242, -0.40012953, -0.09679899, -0.49495664, 0.4533317, 0.09763409, 0.27542114, -0.1120958, 0.00097281, 0.00824406, 0.02567784, 0.07778013, 0.27970535, -0.04540805, -0.03329603, 0.13121521, -0.28957403, -0.27140898, -0.1374459, -0.36145923, 0.20158288, -0.14804906, -0.12458844, -0.20690611, 0.67600447, -0.07822227, -0.48324606, -0.46778852, 0.04150105, -1.0764927, -0.0614134, 0.00527869, -0.13178891, 0.03208441, -0.16888133, 0.36859697, -0.01301702, -0.45046666, -0.26964578, -0.00368738, 0.19204764, -0.2720323, -0.4065078, -0.15640141, -0.09682561, -0.1385814, 0.30146545, -0.10056787, 0.04035909, 0.11314788, -0.09790345, 0.01360758, 0.03490653, 0.08200108, 0.33441257, 0.04172347, 0.1997982, 0.06134753, -0.18691728, 0.3349846, 0.3126169, 0.2297173, 0.19551617, 0.07317099, -0.10298413, 0.11374706, 0.13441463, 0.13699861, -8.9113653e-02, 3.9143464e-01, 3.2947317e-04, 2.8105438e-01, 2.7524903e-01, 8.3098844e-02, 1.8462242e-01, 2.6724571e-01, -2.6787639e-01, -0.04087058, -0.19410044, 0.06667352, -0.214131, -0.09608696, 0.00711264, 0.00327172, 0.03963061, 0.11861647, 0.37580967, 0.53394765, -0.03924395, 0.23685981, -0.13930237, -0.00889392, 0.10479739, 0.15389127, -0.10355975, 0.4342528, -0.04588757, 0.15684737, 0.07747018, -0.19281828, 0.10070524, 0.00960601, -0.5805146, 0.06312445, -0.02886898, -0.05774241, 0.02391643, 0.09873582, 0.03907488, 0.03161577, -0.13143831, -0.13700266, 0.10402586, -0.06366374, -0.10423811, -0.04648593, -0.33380947, 0.02434257, 0.36677465, -0.00805647, 0.35652226, 0.07902553, -0.11556621, -0.02907973, 0.01167205, -0.06271932, -0.01035597, -0.01152345, 0.16098094, -0.09436534, 0.02602607, 0.04917651, 0.18409768, 0.05876813, 0.21133764, 0.00801501, 0.08389957, -0.04855768, -0.04673507, -0.10720425, -0.25338605, 0.03036095, 0.08891579, 0.02587804, 0.2845865, -0.34258357, 0.12885837, 0.14902097, 0.32384253, 0.0090856, -0.17058492, 0.13097171, 0.3939552, 0.12271211, 0.15301986, -0.21694264, -0.368959, -0.04349503, 0.22932523, 0.15074614, 0.03118199, -0.19412132, -0.38160026, 0.03022288, 0.30165482, 0.06821128, -0.01082887, -0.4140894, -0.29974324, 0.13733333, -0.10481988, -0.41113332, 0.03928244, -0.12965134, 0.07690177, -0.15877703, 0.06638388, 0.13180171, 0.16308008, -0.01985152, -0.16036712, 0.06347812, 0.27561456, -0.08042232, 0.03909859, 0.01256407, 0.18060774, 0.12020238, 0.03957435, -0.0068413, 0.13961123, -0.29989427, 0.00847381, -0.016851, -0.04901208, -0.04452711, -0.00977649, 0.02402842, -0.08392449, 0.12115644, 0.0180958, -0.18240395, 0.07806738, -0.18727125, 0.300329, -0.5668456, 0.14151901, -0.34418026, 0.06248794, -0.0474079, 0.2969753, -1.0513712, -0.16222341, -0.06686346, 0.35040578, 0.16622622, 0.46759447, -0.45748368, -0.13035107, -0.08170374, -0.02017177, 0.03575253, -0.07166523, 0.07818776, 0.12745118, 0.00671547, -0.3087551, 0.14029902, 0.14326683, 0.03579393, 0.23406912, 0.27311248, 0.19436273, -0.17093371, -0.23966935, -0.0301464, 0.09346617, -0.06421547, -0.01229222, -1.083088, 0.2973438, 0.11253785, -1.8603442, -0.28256616, 0.08745465, -0.14607722, -0.0126603, 0.02039264, -0.32293257, 0.13961789, -0.01118847, -0.46117494, 0.22358042, 0.01424893, 0.28355175, -0.4817907, -0.11059, 0.13281915, 0.0467096, -0.12032757, 0.05805564, -0.20343477, 0.08794738, -0.067917, -0.10104765, 0.14709729, -0.01266465, -0.03359344, -0.06664648, -0.11462919, 0.09321434, -0.0376565, -0.04817062, 0.28720516, -0.03925189, 0.0647178, 0.07630526, 0.21586508, -0.06554095, -0.09557552, -0.02485459, -0.27280238, -0.34643617, 0.05115244, -0.29236653, 0.12747814, 0.01132531, -0.08303209, 0.23711048, 0.09505272, 0.17958787, -0.07392351, -0.00470263};
data_t filter7[16*3*3]={-0.38350007, -0.562526, -0.38296974, -0.5541657, -0.14809597, -0.3020529, -0.14954875, -0.12620261, -0.46609122, -0.04694518, 0.11821839, -0.05678891, -0.08986405, -0.16772787, -0.4259431, -0.19471961, -0.5240123, -0.28974527, -0.03167066, 0.08644573, -0.08506161, 0.2462532, -0.25726804, -0.19722894, 0.12732992, -0.2113785, -0.41242012, -0.24157682, -0.35239565, -0.10987473, -0.23535848, -0.36833867, -0.1234142, 0.11728517, 0.08131125, 0.20948824, -0.13254343, -0.32982302, -0.06057537, -0.43078735, -0.4567213, -0.21285515, -0.23246352, -0.1374455, -0.07646666, -0.31630868, -0.07880522, -0.30471197, -0.22294328, -0.34977168, -0.3097828, -0.25742877, -0.36360162, -0.02722789, 0.05808782, 0.09966618, 0.14054736, 0.05596745, 0.2477456, 0.2110233, 0.31358957, 0.20783442, 0.1405113, 0.09422979, -0.08263421, -0.15077668, -0.44533408, -0.51137906, -0.29896516, -0.37151206, -0.4087425, -0.13609196, 0.5191122, -0.03956717, 0.07357903, -0.19648886, -0.66603214, -0.2698678, -0.24544694, -0.5220828, -0.10008954, -0.40584955, -0.25956947, -0.06341338, -0.45174402, -0.10134063, 0.00183932, -0.43127564, -0.0200869, -0.0050853, 0.2108612, -0.18923925, -0.2813721, -0.13899523, -0.46837586, -0.25943974, -0.05851889, -0.13088359, 0.33635715, 0.03074981, -0.09566099, -0.34570074, -0.23333213, -0.65500265, -0.34252214, -0.25443363, -0.22190017, 0.20104553, 0.13127095, 0.33129647, 0.12111943, 0.25803018, 0.1452548, -0.15518388, 0.07257471, -0.14854258, -0.32203126, -0.17869717, 0.10498241, 0.24636926, 0.11461132, 0.43368617, 0.3051041, 0.43652973, 0.30839935, 0.16189289, 0.12071727, 0.35607418, 0.4843735, 0.08452333, 0.18462804, 0.18976264, 0.2927834, 0.1888141, 0.17957154, 0.17673644, 0.1401606, 0.24955122, 0.44538736, 0.20774011, 0.50645024, 0.22634563, 0.28288972, 0.21009053};
#endif