#ifndef WEIGHTS_H
#define WEIGHTS_H
#include "ap_fixed.h"
typedef ap_fixed<40,10> data_t;

data_t bias_conv1[16]={0.00004605779,0.001695467,-0.12573725,0.000909663,-0.008289251,0.2288574,-0.00019263,0.1614474,0.041096434,0.000788194,-0.000591901,0.009665563,-0.000576987,0.0089886,0.000458721,-0.001435501};
data_t bias_conv2[8]={-0.18732908,-0.11804389,-0.031255215,-0.025337804,-0.023668498,0.32009956,0.022225568,-0.13034979};
data_t bias_conv3[8]={-0.09856823,-0.2990453,-0.1896989,0.09199058,0.3960073,0.46484292,-0.51680565,-0.0686353};

data_t kernel1[16*3*3] = {-0.16205008,-0.24402778,0.06492161,-0.2053615,0.003502372,0.24680863,-0.02133571,0.22321616,0.16338369,
0.110458665,-0.036959838,-0.3392409,0.32774758,-0.09783699,-0.13630375,0.1357466,0.25881544,0.022704978,
0.20612967,0.1498351,0.20425332,-0.1038801,-0.10667785,0.12124248,-0.39586067,-0.21383052,0.26132575,
0.27708152,0.21301019,0.15985094,0.008137075,-0.083432905,-0.04368373,0.04466629,0.20122579,0.10647575,
-0.028839434,-0.18435612,-0.17657872,-0.011067222,-0.111721575,-0.10575563,-0.003599038,-0.06352387,-0.00290745,
-0.24723469,0.035485655,-0.12485746,0.039935958,-0.008954393,0.005511482,0.06954904,0.2665625,0.16686346,
0.1399438,-0.06625326,0.13816598,0.25710696,0.074929655,0.17114359,0.24568608,0.100582495,0.20397954,
-0.1051916,-0.004379992,-0.025652518,0.031333014,-0.02110085,0.47275266,0.013009749,0.00490324,0.029260486,
-0.5350515,-0.08507342,-0.00389497,0.114189126,-0.048333805,-0.012340377,0.42000288,0.08612117,0.01641178,
-0.010254283,0.08490941,0.055868935,-0.122401506,0.11541049,0.05266403,0.35377634,0.20499636,-0.09467831,
-2.9593194,-0.08653519,-0.39068812,-0.24201548,0.038400237,0.054293726,-0.23397052,-0.046486214,0.4443331,
-0.007671445,0.03505529,-0.000409656,-0.005294285,0.6560415,-0.014199112,-0.008323478,0.020066062,-0.004531875,
-1.5507368,-0.28669745,-0.048707396,-0.489557,0.065979525,-0.28019705,0.06141186,0.47720075,-0.22260803,
-0.72419494,-0.17198661,0.26296684,-0.5771057,0.30877286,0.3479383,-0.8054663,-0.403792,-0.33895323,
0.07309616,0.33661216,0.4548429,0.031132108,-0.022965893,0.1618384,0.000865946,-0.09359498,0.110391125,
-0.29345477,-0.3392407,-0.22087704,0.10142246,0.07272292,-0.16474865,0.5341559,-0.085993275,-0.25775757};

data_t filter2[8*16*3*3]={-0.04880685, 0.19140802, 0.43999276, -0.1521404, 0.22883892, 0.44441763, 0.19117406, 0.07675064, 0.2141396, 0.17155819, 0.1869817, 0.13564235, 0.07802878, 0.09657713, 0.11503764, -0.06531789, 0.11608444, 0.10223161, -0.00777959, 0.10880286, -0.02611149, 0.09360372, -0.10291059, -0.03999484, 0.00697654, -0.05331049, -0.06847444, 0.06172216, 0.07466696, -0.05414341, 0.0604592, 0.29039943, 0.0711258, 0.07517646, 0.03147638, -0.13063021, 0.15308261, -0.1305752, -0.04540411, 0.13638969, -0.10494436, -0.0421336, -0.0629525, 0.08002148, 0.11207762, 0.00946387, -0.02702092, 0.10101992, -0.10512695, 0.07901978, 0.25844878, -0.03896976, -0.01850744, 0.21881849, -0.20366868, -0.19041105, -0.22719182, -0.06702015, 0.04552089, 0.15917648, 0.0172393, -0.10545082, -0.09737585, 0.06912655, 0.11533673, -0.05738744, 0.05457696, 0.1490817, 0.05515558, -0.02325169, 0.31656528, 0.2583446, 0.06856664, 0.11968857, -0.14593583, 0.12714176, 0.06122085, -0.28021652, 0.01464625, -0.15697962, -0.32947746, -0.10625849, 0.06412509, 0.07864665, -0.13386233, 0.06795515, 0.09098545, -0.10032149, -0.01941918, 0.20757672, -0.04226891, 0.29595405, 0.27283314, 0.0431588, 0.36865178, 0.6962771, 0.14129208, 0.50493145, 0.28036004, 0.15978996, 0.26878062, 0.18073893, 0.19693239, 0.38079342, 0.20441672, 0.14104664, 0.2313608, 0.1485538, 0.06898907, 0.10826889, 0.1437097, 0.12656674, 0.14945902, 0.24742116, 0.0880806, 0.27891722, 0.67072934, -0.03319411, 0.03962113, -0.06120816, 0.25585777, 0.04060255, -0.06029314, 0.04275396, -0.07602473, 0.41460237, -0.07370155, -0.03352304, -0.0135954, -0.18373466, -0.01256339, -0.16092981, -0.01250594, 0.13202977, -0.04106256, 0.11564328, 0.20344211, 0.1533732, 0.3681012, 0.27206007, 0.2723061, -0.03523136, 0.20781383, 0.39918667, -0.09255935, 0.07865144, -0.46021837, 0.09197055, 0.2863005, -0.15098326, -0.02126408, 0.12567711, -2.646356, 0.13106799, 0.05758578, -0.1831898, -0.12161666, -0.08824435, -0.1264147, -0.37143326, -0.07118606, -0.14837138, 0.09813225, 0.34378994, -0.48464525, 0.04488887, 0.18032026, -0.56991565, -0.12479149, -0.3461065, -0.19781667, -0.07791881, -0.34051126, -0.13502224, -0.12340372, 0.13763165, 0.0293351, 0.04585515, -0.09332967, -0.05643604, 0.04922786, 0.15523022, -0.10820556, -0.1504847, -0.06159017, 0.11726253, -0.11455514, -0.0989415, 0.04787939, 0.09920645, 0.10703944, -0.22200271, 0.48951122, 0.05473781, -0.03553061, -0.15097758, -0.23754054, 0.17869374, -0.04681461, -0.0220568, 0.03230736, 0.20298, -0.07155421, 0.02845014, -0.03603293, 0.01225076, -0.42976886, 0.02511498, -0.00867871, 0.009101, 0.15163587, 0.02496352, -0.07744206, 0.07270674, 0.01164217, 0.13439636, -0.04818193, -0.0244367, -0.02424422, 0.08877606, -0.3861903, 0.25028107, 0.21271905, -0.0510409, 0.17607225, -0.01342707, -0.07373659, -0.09751758, -0.11405478, 0.12424424, 0.1891297, -0.14872436, -0.161654, -0.2032015, -0.20263158, 0.1324703, -0.30353826, 0.434215, -0.06870845, -0.90617836, 0.4915134, -0.3392966, -4.430645, 0.2615014, -0.01092444, -0.16903107, 0.45751375, 0.01402948, -0.12760115, -0.05286887, -0.20649447, -0.02477004, 0.17735586, -0.12658618, -0.22894882, 0.9925135, 0.0044816, -0.88045007, 0.4415289, -0.7930059, -0.88917726, 0.20066132, -0.30984157, -0.26033565, -0.14081293, -0.37032542, -0.42396435, -0.07989848, -0.00637335, 0.24894539, -0.07974628, -0.20263784, -0.19595857, 0.3743268, 0.24233921, 0.10697197, -0.068075, 0.07470487, 0.12138756, 0.28422803, 0.05903625, -0.6355794, 0.53072155, -0.16553631, -0.46434236, -0.14322764, -0.31728294, -0.03668443, -0.12390392, -0.11497302, -0.06982809, 0.05698038, 0.00263644, -0.10128789, -0.06971451, 0.01365046, 0.19731496, -0.08528234, -0.15293139, -0.02085511, 0.06236575, -0.02484583, -0.1804359, 0.31197575, -0.04935801, -0.12500307, -0.32876125, -0.08634475, 0.27821696, -0.14370467, -0.09897659, 0.07475292, -0.19208275, -0.15263426, -0.13747193, 0.12076568, 0.11228341, 0.00794288, -0.07563864, 0.04128709, 0.01907749, 0.14220434, 0.10329187, 0.43997276, -0.00304936, -0.07592285, -0.05711038, 0.04627664, -0.06773333, -0.08693882, 0.04694179, 0.15636036, 0.08348184, -0.03186116, 0.11496944, -0.01555085, 0.03311404, 0.06359719, -0.10799345, 0.06817189, 0.20374049, 0.22946371, 0.18000346, 0.05017028, 0.2344419, 0.17226449, -0.02454798, 0.1369884, 0.1626038, 0.17371343, 0.31456563, 0.10435619, -0.08037606, 0.02197476, 0.01844385, 0.03158329, 0.04703076, 0.13200767, 0.08308659, 0.13268699, -0.09751469, -0.03386879, -0.1135589, 0.07014545, 0.052547, -0.18295853, 0.11334804, -0.07138261, -0.24972105, 0.09965539, 0.09028475, 0.00982485, 0.20413205, 0.10657384, 0.0250174, 0.02310561, 0.05021884, 0.0855553, -0.0019225, -0.02638582, -0.06013432, -0.09128904, -0.0813003, -0.1560241, -0.05077826, -0.07852123, 0.21075842, -0.22053452, -0.166377, -0.02363719, -0.02878629, 0.05620613, -0.05780941, 0.07098848, 0.18061258, 0.08597823, 0.36218208, 0.185708, -0.24517, 0.17466828, 0.10606968, -0.23419343, 0.53644913, 0.6339544, 0.17730832, -0.23383583, -0.3130314, -0.19345237, -0.0795301, -0.32048634, -0.07995625, 0.06783839, -0.17434667, 0.04235651, 0.0051773, -0.06334433, -0.06038956, -0.00379336, -0.11045352, 0.08744933, 0.05334215, 0.11024056, 0.21018009, -0.14971705, -0.11314442, 0.15716244, -0.08411714, -0.35456038, -0.08650877, 0.09137703, 0.17102246, 0.22861525, -0.17120399, 0.09925799, 0.05060064, -0.17455792, -0.03645045, -0.02189411, -0.06867781, 0.14209428, 0.45864767, 0.18568598, -0.04685603, -0.25295055, 0.20812306, 0.19991925, -0.11863282, 0.3576992, 0.1670977, -0.16974667, -0.19666421, -0.3241, 0.26122406, -0.16045485, -0.05603207, 0.07120717, -0.03586637, -0.00116286, -0.13330178, 0.20267953, -0.00408234, -0.05016641, -0.08108813, 0.09824993, -0.15940249, 0.1165531, 0.01230398, 0.19108662, 0.13888074, -0.05931184, -0.13963927, -0.13717283, -0.00133548, 0.05376085, -0.0802189, 0.05082491, 0.16594148, 0.07122029, 0.14845861, -0.03210763, 0.0206558, 0.19103274, 0.05937398, 0.17729397, 0.06865674, -0.02014, 0.06770055, 0.15474285, 0.00088485, -0.15469241, 0.06089753, -0.32484853, -0.21064423, 0.04937493, -0.06626502, 0.02708504, -0.00969933, 0.04467307, 0.1839852, 0.22404307, 0.15426275, -0.01353186, 0.2097159, 0.02796441, -0.09864852, -0.32903606, -0.01405099, -0.31664112, -0.30600703, -0.13273369, -0.48571178, -0.46538067, -0.05832669, 0.17917986, 0.21859299, 0.05402714, 0.07514279, 0.14172162, 0.03628084, 0.11374793, 0.28977546, 0.29112655, 0.29596448, 0.29372826, 0.03314374, 0.21680933, -0.3410797, -0.24152003, -0.14199986, -0.27166316, 0.20858833, 0.20144323, 0.0971339, 0.03076937, 0.1945975, 0.25616926, 0.1999295, 0.30900356, 0.2300481, -0.00280604, 0.11113777, 0.18060265, 0.12249373, 0.36958843, 0.3666725, 0.1646505, -0.22528501, -0.105723, -0.04021617, 0.25931233, 0.07793894, -0.00398234, 0.18252406, 0.329591, -0.31411925, -0.0944712, 0.12934075, -0.19738224, 2.8934348e-01, 2.1590480e-01, 9.3616664e-02, 6.2723003e-02, -1.8821273e-03, -6.2650658e-02, 7.2990380e-02, -2.4888117e-04, 2.3368917e-02, 0.29662555, 0.06580959, 0.0672586, 0.44238046, 0.12727559, 0.1676135, 0.04644163, 0.15346065, 0.1464253, -0.12770881, -0.14214545, 0.0042909, 0.07230771, 0.02486155, -0.12153754, 0.12133061, 0.18792869, 0.2847094, -0.09037018, -0.15470967, -0.06708524, -0.24765787, 0.01767272, 0.03801924, -0.0422115, -0.1684106, -0.23395549, -0.00121299, -0.24510308, -0.01725696, -0.0661852, -0.06606231, 0.11867937, -0.05543543, -0.22453584, -0.07238414, 0.17015216, 0.11609507, 0.1370537, 0.20555031, 0.0916946, -0.02793252, -0.2057743, 0.07768095, 0.09804563, -0.05733339, -0.03501483, -0.04013086, -0.0579108, -0.02683631, -0.00777012, 0.10739823, 0.07612967, 0.09190433, -0.01654775, 0.19096611, -0.04890806, -0.08747917, -0.02992911, 0.05384886, -0.02722533, 0.11446501, 0.02981159, 0.04308037, -0.01445127, 0.18726268, 0.12962833, 0.11743216, 0.04149771, -0.02645283, 0.0224599, 0.2209482, 0.06546997, 0.08965319, 0.16006461, -0.09005722, 0.1863691, 0.13396981, -0.00835324, 0.30983844, 0.20107524, 0.28473023, -0.2139233, 0.03518234, 0.07739823, -0.33094573, -0.25685197, 0.12912683, -0.06143874, -0.08963095, 0.13472895, -0.03457493, 0.02831076, 0.06384792, 0.0086543, 0.07770006, -0.01023992, 0.16507366, 0.16352779, 0.32242748, 0.09899355, -0.05704626, 0.5270952, 0.04038885, 0.20134151, 0.08235054, 0.07309532, 0.44001484, -0.0468003, 0.04928508, 0.07161935, -0.02374987, 0.02389885, 0.27760658, -0.11863106, 0.0692881, 0.02602521, 0.275761, -0.22451535, 0.00793856, 0.21979597, -0.1735435, -0.03431131, -0.07415917, -0.17256239, 0.14067659, -0.04553713, 0.04608474, -0.01481533, -0.13906898, 0.13026579, 0.05328153, -0.12620467, -0.09214584, 0.25397655, 0.17583358, 0.2446707, 0.0224199, 0.1873075, 0.17404968, 0.03038121, -0.08770961, 0.22433636, 0.19636206, -0.12908302, -0.18165922, -0.21801187, -0.06940383, 0.02689234, 0.18968049, -0.12512405, 0.12223563, 0.26826817, -0.14024688, 0.17462975, -0.05191343, 0.03655082, 0.29567364, 0.24787556, 0.25226676, 0.24168295, 0.09279422, 0.11618867, -0.1301162, -0.00974937, 0.17907672, -0.00966106, -0.00590021, 0.12221432, -0.03743677, 0.018976, 0.07789295, 0.086781, 0.03322447, 0.13847694, -0.14390045, -0.312965, 0.09283385, -0.1520726, 0.08126284, 0.18848427, -0.04602412, 0.06828502, -0.14754952, -0.00181795, -0.19774897, 0.14418055, 0.09725013, -0.1969272, -0.00552825, -0.05723273, -0.14604431, -0.05108301, 0.16137029, 0.15937118, -0.01894147, -0.00796104, -0.15118548, 0.04730143, 0.26994786, 0.14300634, 0.12468966, 0.2658846, 0.13624859, 0.16111821, 0.17555447, 0.05952408, -0.0153851, -0.26054016, -0.01924648, -0.03520988, -0.01990448, -0.07226752, -0.02162609, -0.14380409, -0.23406602, 0.18344724, 0.08450187, 0.146355, 0.18968342, 0.21924043, 0.12191702, 0.20835479, 0.23135334, -0.0063246, -0.08132815, -0.03212038, 0.08341061, -0.05988333, -0.05739318, -0.06281391, 0.10647275, -0.06505466, 0.02675237, -0.07484851, 0.04260224, 0.11216635, -0.1104081, 0.0893989, 0.06648139, -0.13945414, -0.01524982, 0.03340551, -0.17176074, -0.13860656, 0.05344233, 0.05046802, 0.24870662, 0.36336684, 0.18433377, 0.21158433, 0.17071623, 0.07682058, 0.15824127, -0.07522386, 0.23397596, 0.16033582, -0.0291069, 0.18404782, 0.10302875, -0.03119985, -0.17929906, 0.1655447, 0.09218572, -0.28134972, -0.2946892, -0.0685344, 0.01690542, 0.00609857, -0.06937302, 0.05997264, 0.16375735, 0.1549907, 0.12038442, 0.07585881, 0.2681521, 0.00171732, 0.25866923, 0.36536086, 0.14945135, 0.13942315, 0.08294964, -0.04790765, -0.06216092, -0.09893722, 0.00068139, 0.02795195, -0.13508238, -0.21774629, -0.05600263, 0.0700516, 0.30230948, 0.02831274, -0.04547961, 0.10784702, 0.07760841, 0.07169888, -0.00377164, 0.08289417, -0.07852945, 0.18700063, 0.21464753, -0.0724813, 0.03987959, 0.00069324, -0.08424142, 0.12388603, 0.22551858, 0.10669786, 0.00078972, 0.12386696, -0.07220793, 0.00788507, 0.02810782, 0.0094106, 0.08724465, -0.1755219, -0.41797206, -0.06180953, 0.10764126, -0.03752699, 0.1247865, 0.30189523, 0.5334325, -0.06190417, 0.14528674, -0.02904385, 0.01082611, -0.04870294, -0.03139285, -0.0552028, -0.02469553, -0.08502709, -0.07450779, 0.0099293, 0.0465755, -0.13569641, -0.13511002, 0.0587667, -0.05707752, 0.16269489, 0.10384942, 0.02152985, 0.2249885, 0.2778683, 0.03262457, 0.1470559, 0.45309952, 0.01119125, 0.15192848, -0.05108405, 0.00167799, 0.13862696, -0.04665169, 0.06316413, -0.12644833, -0.00962673, -0.07145552, -0.12904455, -0.15255558, 0.08530562, 0.228095, 0.09743562, 0.2682015, 0.28809097, 0.33511806, 0.11275412, 0.21112207, 0.0977518, 0.05750574, 0.06321778, 0.01619853, -0.10250194, -0.34732816, -0.28171188, -0.12039216, -0.3300169, 0.00166475, -0.14073431, -0.01638577, 0.05705478, -0.01499345, -0.01105017, -0.18239897, 0.22267026, -0.08337052, -0.18428837, -0.1850222, -0.05174849, 0.03081419, 0.1352909, 0.3865881, -0.07020407, 0.32506546, -0.02516675, 0.2063848, 0.13743885, 0.31122595, 0.0522617, 0.3994587, 0.41140467, 0.17238532, 0.17529477, 0.28224015, 0.14451131, -0.19298887, -0.13465722, -0.2788498, 0.13484268, 0.2835293, 0.0018769, -0.00996161, 0.18227531, -0.3674626, 0.41994, 0.23120916, 0.08196704, 0.01891883, 0.41613603, 0.69994515, -0.06166919, 0.26470214, 0.40058985, -0.13561021, 0.06317639, -0.08072408, 0.24501297, 0.09822802, 0.1978413, 0.05294731, 0.16057934, -0.08213988, 0.22412632, 0.05660583, -0.2290963, 0.30565187, 0.49089065, 0.20914407, 0.31677327, 0.4076962, 0.10916138, -0.08180446, -0.07881608, -0.19680694, 0.11488668, -0.15563108, -0.22924338, -0.16284601, 0.30432412, -0.04029015, -0.16488822, 0.0197065, -0.15784551, 0.06009529, 0.29968455, 0.00101178, -0.09392554, 0.25921127, 0.09522808, 0.08052877, -0.11472234, -0.07435831, -0.06742844, -0.12672392, -0.45284387, -0.12737814, -0.25237852, -0.23456612, 0.21168742, 0.11033372, 0.19800048, 0.24136694, 0.19717437, 0.23942123, 0.03232061, 0.08264855, 0.15314622, 0.09603722, 0.10013282, -0.11308756, 0.11752973, -0.00995377, 0.09150728, 0.00860194, -0.09544656, -0.09255915, -0.04519987, 0.10910223, -0.09030512, -0.00223527, -0.08065756, -0.13413504, 0.21546505, 0.04562634, 0.19666196, -0.06980358, 0.06543749, 0.00893661, -0.08304913, 0.05119082, 0.22720836, -0.11705953, 0.01983441, -0.07192152, 0.06985881, 0.0602468, 0.01141792, 0.21595408, 0.01726275, -0.08458833, 0.1456031, 0.14594692, 0.05865484, -0.03089688, -0.16094854, -0.16508247, 0.24420224, -0.06297807, -0.06350268, 0.14005427, -0.18488915, -0.3177262, -0.11949266, 0.05717771, 0.07228424, 0.04848108, 0.14914873, 0.14878505, -0.02435719, 0.14452387, 0.05144849, -0.16773199, 0.08831152, -0.28599536, -0.22783364, 0.24674544, -0.37825406, -0.06664623, 0.5379173, -0.0391971, -0.07125751, -0.08371402, -0.06014823, -0.00359036, 0.04076173, 0.11313947, 0.09085121, 0.2681768, 0.20886919, 0.35735482, -0.09579312, 0.00651014, 0.11337481, 0.18828878, 0.11991186, -0.22709952, 0.1686443, 0.08952241, 0.11967162, -0.09943862, -0.02007727, -0.12059573, 0.25854048, -0.10637456, -0.23847632, 0.03817076, -0.28223893, -0.05761995, 0.01491735, -0.00035594, -0.04063709, -0.00753428, 0.06781924, 0.27422184, 0.03879897, 0.16853498, -0.17159912, 0.17227301, -0.07202265, -0.32851467, 0.09135766, -0.14870013, -0.00650713, 0.3319899, 0.13975428};
data_t filter3[8*8*3*3]={-0.0677966, 0.42275885, -0.00061215, -0.1133323, -0.00100782, -0.05625276, 0.04747077, -0.03548198, -0.04897275, 0.3790718, 0.52662057, -0.0709253, -0.39522573, 0.07307196, -0.12141591, 0.10139113, -0.16103052, -0.10408658, 0.17914593, 0.24753779, 0.0225854, 0.35624465, 0.00459639, 0.07903139, 0.05920572, -0.01659688, 0.0471591, 0.12082218, -0.00957776, 0.3245104, 0.12341503, 0.05968961, 0.14663844, -0.03155843, 0.06941643, -0.04612169, 0.03702698, 0.05378344, -0.28094625, 0.22010078, 0.28010777, 0.0123405, -0.00071047, 0.10759582, 0.11195423, 0.05683918, -0.10967742, 0.07606357, -0.12204684, -0.03786823, -0.1649492, -0.09420121, -0.27614325, -0.02461183, 0.01865939, 0.0978831, 0.08857124, -0.02055697, 0.0704101, 0.13377653, 0.04906088, 0.07320518, -0.1147556, -0.10858218, 0.1494091, 0.1768331, -0.0844082, 0.0712703, 0.06460029, 0.09502797, 0.16416648, 0.09091755, 0.16918992, 0.17876326, -0.07916409, 0.30154622, -0.03570981, 0.18127148, -0.02013426, -0.11815306, 0.1971848, -0.07735062, -0.08534781, -0.1864978, 0.75320154, 0.07413381, -0.06295487, -0.28659144, -0.16037732, 0.183371, 0.04153937, -0.02194928, 0.3181206, -0.03361399, -0.08788364, 0.1705988, 0.1578355, 0.20957127, 0.08781271, 0.04547012, 0.27524033, 0.1486141, -0.27386028, 0.25206578, 0.13178639, 0.20629597, 0.10477921, -0.09234705, 0.12795624, -0.16200648, -0.07882604, -0.22920266, -0.13553816, -0.10940216, -0.02122017, -0.00519841, -0.15865774, -0.4178798, 0.11639822, -0.10166198, 0.13017857, 0.06919184, -0.08306406, 0.02259063, 0.15851632, 0.07742281, 0.10985182, 0.3223371, 0.0582128, 0.30226862, 0.5115753, 0.05579323, 0.0384585, -0.14280318, 0.02186553, -0.20438744, 0.17990524, -0.00561221, -0.01760928, 0.26471156, -0.19166443, -0.10499852, 0.00684641, 0.12058353, -0.06565677, -0.16622025, 0.09412883, 0.36968112, -0.00842094, 0.10379151, 0.0034839, -0.09636971, -0.01865733, -0.38126594, -0.20398842, 0.05694417, 0.11228289, -0.16518213, 0.3093171, 0.3309194, 0.00297055, 0.30541953, 0.07646615, 0.02668036, -0.02379972, 0.00895672, 0.128948, -0.1120021, 0.25318927, 0.1475705, 0.19673137, 0.27790496, 0.01019952, 0.08250861, -0.09277241, 0.22565271, -0.03574929, 0.0634053, 0.09178557, -0.1296598, 0.06975057, 0.08987591, 0.05893818, 0.33174282, -0.17154315, 0.05141338, 0.0805874, 0.02538121, 0.16254437, 0.20626405, 0.0650351, 0.24289194, 0.01670786, -0.094249, 0.07155137, -0.07184774, -0.12067593, 0.06592602, -0.18189971, -0.16962081, -0.08546191, 0.34002978, 0.09369949, 0.18667652, 0.09345134, -0.04444402, 0.1285571, 0.11333279, -0.06102471, 0.06224343, 0.22396979, 0.11402766, 0.1806027, 0.21727136, 0.16516668, 0.2354463, 0.08537132, 0.07175072, -0.03384829, -0.24219486, 0.33716196, 0.02076802, 0.01646625, -0.01039672, -0.1877357, -0.18801315, -0.4263794, -0.00693434, -0.06330838, 0.8318788, -0.2027723, -0.13156502, 0.5306305, -0.06641921, -0.03655976, 0.00392354, 0.09233093, 0.26908156, 0.10727932, 0.09158993, 0.03045926, -0.10984534, -0.09029362, 0.01985805, 0.3287586, -0.09163616, 0.10246832, 0.06146678, 0.38659555, 0.0967576, -0.13888858, 0.13657351, 0.07277187, -0.01754263, 0.1262777, 0.03642397, 0.3004673, -0.22352971, -0.1290512, 0.082149, -0.05995406, 0.07286023, 0.23931709, 0.33546805, 0.25027663, 0.24327496, 0.36098984, 0.18491483, 0.23109165, 0.3916054, -0.02415192, -0.26902276, -0.14990681, -0.10717932, 0.05340062, 0.1493907, 0.02956052, -0.05846758, -0.0427017, 0.09817781, -0.1202765, -0.12918408, -0.17921108, 0.18458268, 0.01664486, -0.0294736, -0.10784227, -0.1882393, 0.00731233, -0.17124456, 0.15107997, -0.44957647, -0.24116741, 0.01314391, -0.36670342, -0.40968287, -0.20713465, -0.5956796, -0.07666151, 0.01735243, -0.08870319, -0.16465917, -0.00080142, 0.55953383, 0.26952362, 0.08384239, 0.01154229, -0.06952102, 0.03519329, 0.53591913, 0.06613176, -0.02053994, -0.5055812, 0.16578385, -0.18788701, -0.18359464, -0.04732921, 0.25010267, -0.20737396, -0.43951398, -0.16413997, -0.9217318, -0.4086452, -0.16051467, -0.01483061, 0.08317263, -0.15610543, 0.2852873, -0.10505164, 0.24765174, -0.5635689, 0.4473711, 0.4668875, -0.24054137, -0.06800731, -0.12317964, 0.3971442, 0.06237518, -0.17970203, -0.19693519, 0.20565659, 0.02174475, -0.00784475, 0.33510482, 0.06119049, 0.35239732, -0.12601551, 0.11772437, -0.13438591, -0.19820566, -0.10636429, -0.09736885, -0.21069573, -0.06395157, 0.18638651, 0.14420345, 0.05821975, -1.151987, -0.7092476, 0.22000888, 0.0340619, 0.03797846, -0.18414408, -0.13057873, -0.17920971, -0.1609449, -0.09095978, -0.0755333, -0.26459995, 0.2247495, 0.09339268, 0.10395035, 0.13800836, -0.25756726, 0.13516882, 0.0134402, -0.11655522, 0.19406457, -0.05379239, -0.0657303, -0.02148277, -0.29467624, 0.07381025, 0.12174089, 0.00708413, -0.22813147, -0.31558368, -0.01909142, -0.14138019, -0.21412934, 0.23153585, -0.01897597, -0.00100758, -0.08865529, -0.0623709, 0.14378856, -0.04141674, -0.03119272, -0.08332849, 0.10799326, -0.08615266, -0.09226599, 0.26601094, 0.03573238, -0.23368445, 0.1588252, -0.10669286, 0.03790901, 0.25110507, -0.05823708, 0.1216723, -0.09257592, 0.02191816, -0.00223452, -0.03650181, 0.07274602, 0.01718604, 0.23926851, -0.18155381, -0.1117788, 0.11781479, 0.05266182, -0.16152231, 0.2300876, 0.10511653, 0.1393098, 0.3819682, -0.04835102, 0.17405504, 0.13533641, -0.03955844, 0.18480317, 0.5486926, 0.29645568, 0.08574091, -0.00914312, -0.20021519, 0.20832905, 0.12308848, 0.3791024, -0.0954222, 0.5748822, 0.00488695, -0.01871396, 0.11575659, -0.02957447, 0.19916132, 0.18018514, 0.13885146, -0.05250153, 0.0340096, 0.3460008, 0.14460763, 0.07585043, 0.03588791, -0.17043746, 0.20542026, -0.07175131, -0.12056665, -0.14299068, 0.0958491, 0.04823343, -0.01630443, 0.14523247, -0.23731461, -0.1017941, -0.01665366, 0.3066175, 0.04380267, -0.1300789, -0.0051679, 0.1011139, 0.11862967, 0.03440294, 0.09878203, -0.26132202, 0.14609273, 0.19419882, 0.02439942, -0.12665974, 0.31330675, -0.2620232, -0.06805762, 0.2506985, 0.0381599, -0.08007773, 0.06662604, 0.28361142, 0.1288561, 0.14142905, -0.23767114, 0.11165302, 0.17486489, 0.15553252, 0.29669634, 0.29439527, 0.03343087, 0.01682256, 0.08822078, -0.09363737, 0.13378629, -0.01484993, 0.01501194, 0.05974591, 0.06481212, -0.08816664, -0.14404199, 0.20315437, 0.24513239, 0.12007615, -0.11281818, -0.09548863, -0.02543744, -0.02110884, -0.27825934, -0.15018111, 0.23716615, -0.06159938, -0.23089257, -0.15351771, 0.45690742, -0.11934386, -0.01948304, -0.03179589, 0.03370772, 0.29851472, 0.14309713, 0.23663189, 0.1867433, 0.10270391, 0.24143852, 0.18296057, -0.10688631, -0.05105929, -0.03842678, 0.26009077, 0.09242612, -0.07064469, 0.03256094, 0.08899746, -0.05848467, 0.09990676, 0.24867778, 0.15861216, 0.02330081, -0.31453282, -0.09991521, 0.11679115, 0.06463062, 0.24999033, 0.01904338, -0.4507681, -0.2978951, -0.10771358, 0.11749946, 0.12937121, -0.05493695, -0.06340855, 0.06074326, 0.22728474, 0.257381, 0.15185288, -0.02192581, -0.04123024, -0.21322188, 0.14603093, 0.19725291, -0.09341335, -0.07030185, -0.18817514, 0.15574697, 0.3927905, 0.17787318, 0.03056586, 0.03192165, -0.15321279};

#endif